{"conv2d_weights": ["-2921904", "2237904", "-4885250", "2179001", "-1209339", "1010003", "-2541994", "548824", "2254013", "-962064", "369913", "2316071", "-701477", "-6470574", "3308201", "-3193576", "855969", "1902373", "-2626406", "1312416", "-190942", "1554335", "-653822", "-2462072", "-4005677", "-524982", "-390286", "-1897030", "1260595", "1156293", "2276598", "-1529579", "1651847", "-16642", "-2632910", "-1212978"], "conv2d_bias": ["0", "0", "0", "0"], "batch_normalization_a": ["277467", "276747", "205075", "272908"], "batch_normalization_b": ["-1689046614016", "-17460293009408", "75418082213888", "-1692318957568"], "conv2d_1_weights": ["1614919", "1059908", "-1364882", "998046", "1313735", "-1426193", "-426229", "1759905", "-4089014", "-2908148", "-2976756", "2323934", "-2630253", "-4568752", "-3126630", "1382408", "-1843504", "-87399", "2432134", "1295144", "1683221", "745226", "1089821", "-2424774", "3127511", "764352", "2179684", "-1197965", "1352784", "3260393", "639939", "-801448", "2609118", "-2442822", "4509256", "3635950", "950971", "2508166", "2387746", "285773", "68390", "83004", "1862467", "5067134", "-1279783", "-2358400", "-3782261", "-3040353", "-5297192", "-105536", "220630", "-332159", "-1266477", "-2528944", "3728549", "965163", "4874544", "1800122", "2218312", "2755708", "439725", "5445925", "417068", "-414981", "-277272", "1442831", "-739598", "95039", "1263887", "-1973465", "1292927", "192963", "-1994176", "-3046920", "-904987", "1963776", "-2780324", "-2429741", "-2227560", "1338917", "673165", "1885191", "1097086", "1292919", "3269351", "-894430", "1284404", "-2697233", "-127169", "1432081", "-213594", "-2480770", "686694", "1728750", "-363583", "-978552", "-1264081", "-2412352", "490887", "1200356", "3293566", "-3094344", "-786697", "1745104", "1422612", "-513261", "-2534722", "477236", "2858920", "816114", "-3272073", "-542262", "1663534", "-106615", "-33815", "-191553", "-879317", "896969", "-2326428", "281821", "-4469326", "-2023244", "1229519", "469324", "-410998", "-3036784", "-896037", "-2804586", "-3226410", "853423", "-1778580", "2037183", "1709601", "-1551360", "56493", "3133159", "-470131", "-3084374", "-525678", "851429", "-189836", "-645542", "-998625", "-382966", "2185147", "2718194", "-74653", "-27389", "891694", "-1339769", "1693240", "-1638531", "-221350", "2457947", "-1653564", "-820152", "-1747017", "-66210", "-425023", "1940492", "-1250259", "-3707790", "679145", "1077160", "796854", "1781992", "-2839154", "1050942", "849514", "-3277762", "-935857", "1734663", "1586347", "-2247596", "-1769852", "1134917", "-312259", "-1754995", "2732960", "591897", "2757227", "780860", "-2179532", "-2490041", "-3322938", "-2600782", "1606066", "-1421689", "4661718", "2110824", "-2246266", "-3368834", "1434961", "-2952433", "-1357716", "-3546247", "-2302957", "632144", "-1587415", "-1419411", "129945", "409479", "-140272", "-605727", "1277491", "-43057", "1107692", "-467428", "-2812479", "-945640", "237736", "-729689", "-281114", "942593", "-940748", "-916251", "1616446", "-1465488", "1805487", "-536086", "1689276", "1955375", "1226605", "-109542", "1685072", "2596549", "671408", "-1548138", "-1310362", "1593438", "1725125", "-2772694", "-1917681", "477704", "1545446", "-354432", "-2174220", "-1378517", "396504", "964481", "-1621180", "827879", "191105", "815481", "1177535", "-2238210", "4383372", "1158806", "1444755", "-1039550", "-139421", "4156436", "-3659128", "-1493311", "-2540054", "1047807", "-384450", "-5401048", "-1244482", "-4115254", "-2180908", "1055015", "-2510481", "-2702318", "918191", "-1955094", "486675", "-416435", "1561392", "-32718", "1324784", "-1569531", "-225327", "-640970", "-1490540", "-2030726", "373816", "-980792", "-1864536", "-695082", "8948", "-1015721", "-1144095", "-1785739", "2042177", "916792", "788263", "-397418", "789828", "186859", "-131025", "-1523410", "1173927", "-1910239", "-899446", "-2450090", "-273371", "-140222", "-2378289", "-1393738", "-41150", "285799", "48905", "1068874", "1950512", "358404", "587048", "331944", "-1470838", "2763655", "-690550", "35228", "-2025720", "-425512", "1766189", "207687", "-1828155", "-2203952", "-207627", "-409025", "-1031398", "-3625888", "-2352857", "-3385975", "-1851036", "1062093", "-2541426", "-811678", "-486038", "-2843790", "740820", "-1429630", "2020476", "-180313", "1822846", "-2196582", "839971", "115849", "-1140930", "-1665628", "-387858", "-1258007", "-428867", "-1034287", "55189", "133690", "-1607603", "-65656", "-208875", "-14023", "219779", "2026678", "858245", "2120738", "1273761", "-1058106", "-807317", "1865480", "1179125", "-3407194", "-798872", "95171", "1142110", "-313878", "-1816140", "435760", "938922", "1572090", "-3025468", "-547193", "1085663", "621881", "-547805", "3067018", "-2918034", "-233446", "1137321", "-758043", "362671", "-65458", "1497334", "1096294", "860248", "3501910", "-306359", "4246434", "599187", "2698382", "-2369092", "2447624", "789520", "2519808", "23392", "3214688", "2586455", "-1092904", "-2491581", "849489", "2921655", "1098801", "1067969", "-1495086", "1932929", "690209", "2052966", "-848501", "529900", "-596712", "-211787", "-896538", "-401003", "1443585", "679903", "-903910", "-2681856", "-835809", "-166820", "1112486", "-3490742", "-1622614", "-3164068", "1157586", "-2577627", "552214", "-2004428", "-1100980", "890622", "-2449117", "-1516856", "-705728", "4171990", "1315501", "227846", "-776747", "-1898916", "-1227198", "124032", "-2216389", "1697884", "1020060", "670322", "-1176108", "-1916229", "2608401", "-1982164", "-2016784", "-1381632", "-1696740", "568812", "2306011", "4028462", "3457723", "-321463", "3008484", "2828166", "-684079", "2831384", "3619688", "3488736", "589837", "-1996576", "1818236", "556347", "704570", "1416098", "482261", "-245262", "-971170", "1540714", "-1846437", "-1014868", "-339869", "-1525922", "575674", "-2517528", "-1309661", "1328285", "-184121", "-700794", "1238136", "-1849419", "968534", "-1345474", "1292453", "2272101", "-2549029", "149850", "2402881", "146646", "992332", "-728875", "-2122678", "2416223", "1823624", "361305", "-1511975", "-447202", "1025874", "-1557860", "489590", "-2408994", "1861139", "-540636", "676673", "907006", "1041455", "1511701", "-1788328", "-1062688", "358896", "3057859", "1517604", "901288", "1808267", "3021720", "3365787", "795467", "2101236", "1584758", "-259825", "861697", "2672130", "2452172", "-401366", "-568608", "1766230", "-259153", "-1270510", "1522603", "1023995", "-131171", "-763831", "632989", "-2016854", "-73822", "298718", "-1162406", "1142250", "-3201292", "631265", "-303100", "-1293083", "-1140557", "2182727", "-1122725", "96112", "-1356999", "571580", "-2190352", "335711", "1294603", "2151022", "2346627", "1132195", "1715340", "-269937", "-530023", "1613180", "2696992", "-1666267", "-1334547", "288679", "707811", "979723", "852570", "1993360", "-2057248", "-214828", "1042475", "693483", "-581139", "-1325855", "2117342", "2175322", "613806", "2506165"], "conv2d_1_bias": ["0", "0", "0", "0", "0", "0", "0", "0", "0", "0", "0", "0", "0", "0", "0", "0"], "batch_normalization_1_a": ["132093328", "225341808", "141371728", "208207248", "183654176", "194002768", "299576160", "107498232", "195150608", "185191664", "159143216", "211698496", "207039568", "181767632", "172536864", "116998392"], "batch_normalization_1_b": ["-1900246780625838630304614340100096", "96731990940939186282874619318763520", "-156054661931193151755530404519477248", "-195145619438284261697256607369396224", "-256768769258822720759320733905059840", "-173400360849009843110066558970363904", "79277100759897367246571262514823168", "167502200483594805931830781201612800", "-10724457775455063557731798222897152", "279034200349084541854981195110023168", "-71048572739889330257569978955857920", "-20862518209581113903807180090376192", "79103368254784056978791919421227008", "91208262871566562364105930259300352", "122392269566774719980080845251674112", "-25028122068894375689068438349676544"], "dense_weights": ["21091154", "23236802", "-16608020", "-6864118", "-1863115", "-1361707", "-15787374", "-4452701", "21095504", "-10643547", "14815699", "-20008748", "-9773254", "-27063380", "14722857", "-19393894", "16441821", "13105903", "-9149552", "23998380", "6129980", "-15006773", "-4367776", "4613268", "2561298", "12616056", "-30643808", "16412133", "8874322", "9505908", "-14060972", "2753008", "-13257874", "-2314095", "-15344865", "18114690", "-12891692", "30407212", "-6634476", "24623004", "3516704", "-19894758", "-11109091", "8779199", "-16725162", "14702102", "-5133262", "-14848481", "11831801", "13009012", "-3322674", "17296136", "7867188", "-23548228", "10340524", "17624858", "-26859484", "21334892", "-7743298", "-11266756", "9401650", "-7619492", "-26094778", "18855700", "8255204", "-27617698", "-20321540", "18284506", "-12368177", "36863076", "-17833998", "17666352", "-3012171", "2405082", "-14963188", "1936614", "11457578", "14113538", "-10558867", "3594246", "-23542038", "4122707", "28169476", "27821944", "-19940016", "-11588160", "-30663950", "7702121", "-12432626", "24700164", "-3235024", "5125210", "-4803571", "-8736023", "-4304152", "-21203160", "-24285172", "25258194", "16192901", "21240930", "-15427217", "-2227153", "-5128448", "-6617645", "25919046", "-1741188", "-15961717", "20401714", "-8848383", "8353114", "7606682", "-265842", "-9213930", "26263818", "-26953066", "6568440", "-18163764", "15845217", "-17398740", "-15388048", "-32942048", "-14919350", "9621060", "10354110", "-12098216", "12279886", "-8450971", "-9304407", "17920560", "-5845576", "-23995522", "-30674614", "11990283", "3328447", "14761946", "-8360763", "-9235021", "10242250", "8347499", "22962398", "-11490648", "12844856", "22958174", "-16196357", "27858730", "-16518205", "13940165", "3366694", "-8003966", "7592082", "16529731", "-11030900", "14120792", "-6576016", "-9081208", "-4272254", "5507470", "-2616408", "-5088698", "-2142752"], "dense_bias": ["-26529005169868471464774906384807521520266412959696158720", "-43160820007324224122634174028928334325246809675197841408", "31218099594116213218068086388650878853042352766140284928", "11805909872055054787804249151495701081801053036221562880", "27296072244644167602010975905079751883585819292561571840", "-8564166724681854477762978015403657787562218509819707392", "15835721790790558025025483270453530766409684143820505088", "-10743974894285202526494109675989907510520136640587890688", "-25292590260505676598628015799499643179603645597986324480", "13990329205989837944813927535606705793801205639234453504"]}