{"conv2d_weights": ["-4200113", "-1666566", "-1278190", "-227102", "-1630016", "548645", "55170", "-95296", "-101367", "-2691256", "-2286321", "-1132048", "2152158", "-630948", "-573529", "806381", "4384610", "3145560", "-3125084", "522459", "942036", "-108998", "-1274429", "4416326", "-3192015", "3355196", "1890957", "-2562913", "131870", "-3104371", "4533109", "-769565", "97555", "1512964", "1397512", "1044554"], "conv2d_bias": ["0", "0", "0", "0"], "batch_normalization_a": ["309120", "413877", "278377", "270624"], "batch_normalization_b": ["18955257249792", "-6684475392000", "5965883113472", "-15867933884416"], "conv2d_1_weights": ["1356263", "602277", "-136543", "-2491142", "2170319", "1023858", "4347652", "-41920", "-3884338", "-4027176", "-2071809", "-1992107", "-773413", "6633058", "-2897100", "2735876", "-569770", "-971895", "-3898404", "2175142", "-747080", "833069", "592331", "-386222", "-299201", "-1912659", "92068", "-2759843", "-61978", "-141087", "-319495", "-10436", "-252508", "2129955", "-256532", "-354198", "320770", "-1124179", "-1149783", "-3557160", "-1730008", "-923788", "-401055", "-708283", "569519", "2433056", "-1050293", "2366732", "-1187245", "-2373714", "-817910", "784767", "-953830", "-829557", "-653741", "1154266", "501754", "595525", "1572303", "930507", "-2080730", "-2454837", "-224174", "-1105513", "3532367", "-487915", "324934", "89409", "1117998", "4155458", "628452", "2221873", "2371823", "63177", "-215507", "448849", "-2286003", "-579510", "-727054", "-2109769", "-754575", "-2011411", "-87873", "2900863", "-786560", "2300757", "-815497", "1017485", "635918", "2355558", "329521", "820746", "-637675", "-1238080", "1619171", "-1368542", "2635678", "220923", "4762558", "-113912", "-1806890", "2179219", "-361447", "1012092", "5199138", "4076319", "1561904", "2830853", "-119343", "-1850537", "253568", "-848019", "-1172734", "-1998212", "-357215", "484586", "-80590", "-60366", "258651", "1658075", "1310820", "830920", "385643", "-1133570", "1024491", "341384", "-1060942", "-841251", "2061406", "-3495675", "-1665078", "2317929", "1910680", "5351212", "886019", "927792", "2629894", "-1394644", "1938521", "-2584146", "137988", "-846603", "-1355563", "-3966908", "-2733349", "-1352503", "-2486616", "2409383", "-477081", "1656886", "1318673", "-487044", "-1813426", "-279042", "-1777625", "-3420752", "-2191774", "-463315", "-687015", "2111760", "2605668", "-747019", "-1363200", "1895053", "-398163", "2360659", "-1114426", "655189", "-1428611", "-2034743", "728557", "-2667844", "164440", "1265958", "-731266", "603732", "-2410462", "153358", "-540170", "469934", "-1412471", "-1822878", "-1204810", "-1153571", "-166318", "449513", "-988623", "125854", "-1530804", "-2147391", "-1596518", "1956782", "362779", "1695555", "-99186", "-1468926", "731228", "-560355", "789301", "580762", "-436644", "200918", "48356", "-2596077", "897524", "595330", "614043", "145628", "2423700", "-1071150", "-2264533", "-326899", "1275820", "1538824", "225139", "303698", "828240", "-1346178", "2686216", "1697575", "3221032", "1590197", "2854110", "-1361661", "-943364", "-755426", "378343", "-136179", "4117138", "2070770", "-213551", "-809284", "1137883", "-2061941", "908039", "-710926", "85796", "1852206", "-570595", "537231", "2037345", "-939098", "699198", "1098673", "-1019613", "-1945649", "-1060216", "1894187", "-1633908", "-104448", "1543758", "2008978", "-1766254", "-717044", "1497789", "-791783", "-611833", "138267", "-1224794", "-579473", "-488250", "-784611", "-1274768", "1312023", "-592676", "1413933", "-1416598", "-644160", "-1398482", "518621", "-1459888", "-150487", "1365379", "197193", "-629097", "927782", "-999225", "228484", "-621600", "-1500181", "-828065", "742131", "-1493082", "1123361", "-50292", "-1648822", "-72907", "-12488", "56", "-257680", "3424301", "-841061", "-1635024", "-247656", "3375206", "1727084", "-226118", "1650173", "-1418566", "2137221", "-3273984", "-1860586", "-290164", "2120718", "-163148", "1459660", "-1157272", "-256512", "527249", "-418193", "-128346", "-1138876", "-741874", "-661513", "-558574", "217843", "2097941", "-204722", "2068528", "-1707499", "-231009", "-987244", "-713694", "1948668", "-498371", "-598943", "914162", "366679", "1448506", "1237418", "228669", "-938543", "-619631", "-110460", "331342", "-2270682", "282090", "1324706", "141177", "-1653667", "1435621", "-429359", "1730374", "-1400180", "16869", "-1905656", "-1304776", "-159948", "1715054", "447922", "-734896", "605632", "-1155980", "-3083909", "-2135226", "-523804", "3648234", "2353676", "-207964", "2563723", "646514", "-804418", "1322732", "-1980829", "416799", "-124209", "-1109103", "-1761967", "37102", "2821012", "-1881541", "-1481929", "19899", "-1694110", "542534", "-3525891", "-1500898", "-431185", "-3253300", "-1212803", "753538", "675335", "-2972939", "15781", "-3514649", "576367", "-2463454", "2688096", "-201956", "-835639", "-2374185", "-4423348", "486325", "1072307", "894813", "-2160449", "4140504", "-1295323", "328614", "507431", "2370926", "966029", "926195", "-2462808", "-2535858", "740106", "1766114", "2924452", "368034", "2442174", "554134", "1894826", "-2979238", "353772", "305990", "314305", "1491304", "1348750", "2708908", "-3943719", "-2409411", "-1862603", "4725431", "2147672", "-3220033", "740635", "-558304", "310517", "-897343", "155167", "-461686", "1664730", "2025915", "-932062", "-885273", "199226", "2512055", "542125", "-2605539", "-523167", "1981595", "-1571655", "1759602", "409492", "1324660", "1428017", "2169310", "-3493436", "-1252912", "170010", "729011", "1739306", "-30800", "427595", "-2179397", "-927691", "189957", "1039020", "536173", "-401124", "-296287", "-2493133", "1140514", "-125666", "2160804", "1241254", "-364228", "-37435", "1067823", "-309608", "-790841", "-301422", "349665", "332675", "-331043", "828544", "542054", "1244855", "190394", "-931492", "780134", "-487002", "-87107", "363753", "-1113489", "-1326645", "2373661", "-585387", "-1512937", "-1920181", "425742", "1365459", "1039508", "-557258", "1068578", "694214", "43981", "-731857", "-845778", "-400376", "895706", "1939453", "-1643958", "843483", "2673275", "1233756", "2131667", "-509102", "423052", "1175020", "5237", "-261516", "-666754", "747309", "1894605", "-703780", "-770162", "445859", "1281917", "-1881946", "1275922", "1505828", "410613", "1047480", "762392", "-491801", "359788", "68257", "540501", "1080551", "39203", "-743847", "1332378", "602743", "1059282", "-657767", "672813", "-743142", "-2766928", "-377400", "1308224", "927044", "-99630", "-870551", "1545460", "-1368738", "-4155148", "991920", "-49586", "-638110", "1838685", "-1504363", "-1747868", "-3235914", "-1283408", "-1111855", "1694416", "-674800", "-77253", "-2325040", "667348", "3240340", "1244168", "-3067111", "3168648", "213312", "834055", "-398727", "1471771", "38185", "-2579538", "-1069418", "-1253910", "832084", "-3797415", "431040"], "conv2d_1_bias": ["0", "0", "0", "0", "0", "0", "0", "0", "0", "0", "0", "0", "0", "0", "0", "0"], "batch_normalization_1_a": ["56513528", "66977380", "70923352", "54167876", "40028900", "39991328", "34177968", "59230328", "51055040", "71016680", "85025480", "64072752", "90931672", "65890044", "80853232", "87802696"], "batch_normalization_1_b": ["-13540813454790639386056652402720768", "3848642001139642841021155217768448", "45059447722018028144139549664083968", "-8016497363899354911657386259251200", "-39943125719574222873840162386739200", "2744379988541464891071806748753920", "27725853381905469237931358849859584", "29299658933249366035213364467073024", "-40068135380621339144760025749127168", "26279837904936923675666640028041216", "-13424694679105670716271114550509568", "28175413783052033655521525610053632", "17613992710770854679993942047457280", "-25932925015967824419710558850252800", "62945972932437559291652533909454848", "59001722655668837782585438254399488"], "dense_weights": ["-14628464", "5688998", "-23651332", "26750822", "-31727298", "24403698", "-13220732", "26048760", "-3352736", "6993162", "1813454", "-20574874", "-15977470", "-15204645", "14013395", "13904921", "14355682", "-4182728", "3333437", "9423699", "-15093936", "21156660", "-14486254", "-3429838", "20757788", "3990160", "-9787840", "-4614462", "4571503", "22005568", "-139458", "7484461", "32165868", "17532066", "-24678908", "-12343258", "27903232", "-13551427", "-17018692", "-18365340", "20499472", "-8340224", "-1859445", "11572322", "1798352", "9350091", "-31112140", "-20046646", "13213615", "-16343873", "5041322", "16191572", "6215092", "22377288", "-29803634", "19356086", "-19903450", "-14038075", "14181241", "-32215590", "1437838", "10147709", "-17316658", "-9089156", "-10154300", "9177147", "-10552547", "23204138", "1739276", "17270074", "-18273860", "16980758", "-4548265", "1648791", "5418404", "2543122", "-19041522", "15665483", "4908794", "-4424988", "-548172", "4922680", "9260853", "16867532", "-11268854", "8048210", "-17058594", "-33754472", "16027628", "-15790411", "-34822104", "18162166", "17983306", "-10117041", "16099358", "8110067", "23157966", "-41533576", "5290842", "-2479199", "-8081462", "18938522", "6872892", "23920250", "36128", "-6749838", "-13337524", "-7390214", "-8415679", "-6843632", "-29365330", "1014077", "-20725390", "8978837", "16031992", "-16302742", "-10971335", "10555860", "6832420", "27938058", "10625302", "-32458126", "-943841", "12432772", "12142597", "-7228050", "-28115434", "-1413874", "-7862424", "15992098", "33330864", "-1914026", "-26908422", "16618092", "-2199507", "23567412", "-17210748", "14743280", "-2199790", "-29881464", "-25111548", "1511281", "1930664", "31055142", "20762942", "-25702942", "-12104572", "23526986", "-18479122", "24773946", "1850764", "9000024", "-15590650", "-20571746", "22964978", "-4695340", "25206116", "10643915", "-12513336", "1699986"], "dense_bias": ["-30317050218582153735404208010597017435879933113821822976", "-9012915939092637078954748389202170136470639375242231808", "13111279904842377099274521067255698295330883407607496704", "-12283645570278168410800745513357723045837706455205019648", "11661613732576371043336601202675568975889875307872649216", "-4864357039332390472363552661936747563665560392477704192", "6691273301839828623159599091329424867555357324166037504", "14723496139049532182977864730864011482984167838628970496", "20584526658058167333283503274549295555045763959857610752", "-9236726164817811212909987009604835981415075499219091456"]}