{"conv2d_weights": ["-24613", "-3318227", "-5441274", "4631664", "1223362", "1165595", "-987264", "1852650", "3260245", "3725070", "579840", "-1283907", "-1630184", "-1661752", "-574454", "-4942552", "777501", "3223810", "309671", "842190", "-474513", "-2340963", "-3312515", "817432", "-2948375", "-1724618", "3504372", "-194220", "-3197172", "1955580", "997161", "-1449839", "-3753303", "-824531", "2547709", "1420828"], "conv2d_bias": ["0", "0", "0", "0"], "batch_normalization_a": ["222672", "283464", "203531", "280335"], "batch_normalization_b": ["33909314158592", "-1287661158400", "-1812100415488", "-128453730893824"], "conv2d_1_weights": ["-273768", "2104540", "15827", "-747867", "2088688", "-2353644", "3690211", "-743612", "-958262", "-3250747", "4079311", "4425508", "1648675", "-1235306", "-1453661", "1190674", "1915148", "993987", "952541", "929608", "-1107977", "-704566", "-2055232", "-2927261", "-747860", "2456040", "-1063572", "-743474", "-1005728", "134864", "-1341563", "228528", "-3028096", "2053942", "-321402", "-1618775", "1401216", "1506934", "538133", "1816109", "904842", "-3218542", "1474294", "1945855", "3002736", "-3726227", "1523633", "33241", "1393833", "4562191", "-1894458", "2468464", "-377294", "2726265", "-1728185", "-760233", "-2730697", "85496", "746037", "1913118", "-110566", "-3586782", "551854", "-3656899", "-2841262", "268791", "2017581", "-707860", "1973604", "-3950263", "838108", "-1113612", "-3317509", "-1719853", "2856784", "2200292", "2719000", "-2315984", "926288", "2488294", "2373858", "1125583", "2297784", "3494510", "-2738409", "-1869028", "379540", "-3147416", "1232191", "3295662", "-2060429", "-494314", "636429", "772008", "-1973279", "-198530", "1485036", "-404159", "2081867", "130004", "58292", "-168483", "443146", "-1899147", "-1438678", "345643", "629657", "954656", "-2490571", "1456705", "-319323", "-2018644", "16311", "-341068", "-3645503", "3196238", "-377753", "4346742", "-3020774", "1794705", "3991290", "2271643", "-1189517", "-2734076", "-3512398", "1832368", "1296248", "-5440288", "-153265", "-137112", "1427476", "-574989", "3420116", "-2087935", "-5052042", "2644261", "-3217306", "1316453", "3596559", "-3907398", "-805913", "2772622", "155545", "-2020818", "2189828", "1089978", "1377438", "2177568", "-971506", "-2178374", "2478908", "-2593620", "3279866", "2423512", "-719744", "-11837", "111858", "142423", "-773428", "-494740", "318102", "-205390", "1217031", "3167338", "-1810210", "-1867019", "-2396763", "513600", "-1352430", "2207118", "-2229503", "-1497448", "1680069", "26693", "-2409933", "1261662", "-2901680", "1381688", "-298643", "178719", "-2047083", "3361192", "582419", "4327753", "3527430", "-2149809", "-113629", "-1782872", "-3422672", "3326543", "-676319", "-3921879", "3265073", "2703191", "4654530", "427473", "-311116", "-1737524", "4086146", "-2607660", "-75355", "1468227", "-1746065", "2934668", "-1318567", "-755158", "-2078174", "1190499", "597935", "-3014736", "-212730", "-500211", "2030094", "-643552", "1072467", "866773", "1290633", "-1493976", "1276775", "251931", "679999", "-482111", "1759061", "1445183", "622236", "3785399", "1171412", "-2612177", "3611366", "1107041", "-423510", "635558", "276010", "-2398069", "1278342", "9485", "1400042", "-2714357", "-994674", "-593558", "244125", "654924", "-2752291", "2488887", "299682", "3196695", "-1738650", "246120", "-1439508", "-1352773", "-1638202", "611781", "-175643", "-2021322", "777113", "-1749358", "2266938", "-154009", "1493720", "-1959594", "1368693", "-2078347", "-2587554", "-2202297", "-721618", "-349671", "3237364", "2051557", "1146513", "-2003515", "-716833", "-861615", "638133", "-3765603", "-941495", "53196", "1063821", "1030087", "-161103", "1506540", "-1095817", "-1381595", "668651", "187498", "2285876", "-519648", "2605567", "1540916", "3460502", "-2020007", "837792", "355885", "-497197", "-1609830", "683971", "-1395248", "199846", "1554289", "-1952565", "1184854", "-1202554", "476772", "3070107", "-1355028", "-4134301", "-933381", "-5009720", "2989206", "689854", "2001852", "-2788677", "3439499", "1739869", "-580353", "-807773", "-2204486", "-47534", "1047155", "1227731", "-4065439", "-765848", "-814146", "715504", "950101", "1338149", "-1074451", "-3267934", "3053528", "-700711", "3715308", "1175598", "-3387253", "-2030964", "2574881", "-1075878", "-946531", "303088", "-2633063", "-78761", "-477221", "476446", "1836873", "438", "-30945", "-3539050", "-907128", "209865", "168751", "2375858", "-663543", "2532050", "-99087", "332648", "-1693263", "-1726795", "3707703", "-127440", "-1255031", "-2480012", "393808", "113885", "2293853", "-103583", "623047", "2905084", "854174", "-935908", "1193294", "-3668436", "2643034", "-1226716", "-26032", "-2864834", "-2077831", "3939920", "3252069", "2829801", "-876936", "-486369", "-2939824", "-3707074", "2856071", "-793386", "-1490021", "141584", "-1240990", "4038498", "-1493877", "-1395813", "-1610426", "-3054859", "1087494", "148073", "-829953", "669546", "1347428", "190510", "-3333681", "3647904", "-1350682", "-1532737", "2300981", "810260", "-1293945", "-244087", "191294", "-38464", "358491", "-1102418", "376744", "2208048", "-456071", "-291754", "956729", "-663723", "2388828", "54374", "1373346", "3124428", "-2991610", "5180754", "624481", "276420", "-1951839", "1420862", "-1715027", "-260882", "1360250", "-146591", "189080", "-1776656", "-979388", "-1965995", "2142455", "-754238", "111349", "3170784", "-186455", "-189948", "1479846", "1557803", "-508926", "-1267911", "119437", "220525", "-46377", "1122084", "455762", "21076", "-3538684", "-1801768", "-458188", "1207645", "1454841", "-2450548", "-1811204", "-839888", "-1700158", "2491535", "3981051", "3038506", "-3808761", "2102653", "-4490400", "-3313193", "2713344", "165282", "-3816703", "1135011", "-277854", "559159", "852171", "1194897", "-744326", "3143641", "-1446791", "-2236696", "1500037", "-1602280", "1626211", "1497674", "85015", "2541346", "1399892", "-67351", "177391", "-183004", "20248", "1155518", "1537023", "-2804661", "-557901", "13025", "-1114813", "3416512", "-331885", "-1329180", "941800", "-2109631", "1457280", "4252729", "-2181522", "2475714", "532307", "1323044", "1966918", "-2114526", "-2104034", "-1388065", "4896830", "-1537864", "-2961786", "-1818205", "-1543755", "-899735", "2509292", "2463732", "867119", "-1178435", "205820", "9375", "1920641", "-1038737", "-2078226", "1587054", "377046", "4946836", "-923243", "-2200676", "1900958", "167231", "-3054446", "-82288", "-606812", "-193959", "1521823", "1963366", "-451967", "628360", "-446589", "-1340545", "765375", "-1468692", "48887", "-73533", "-302214", "-4696344", "1586555", "1555705", "-1216130", "-318104", "-1594858", "262718", "1654871", "3748750", "951685", "2200592", "1854809", "-1583311", "2317411", "221741", "1832740", "-195907", "2367683", "-1489551", "-3676565", "2730493", "3105419", "64654", "2567809", "-2472188", "-3890044", "-3398752", "5024783", "-3354654", "1430387"], "conv2d_1_bias": ["0", "0", "0", "0", "0", "0", "0", "0", "0", "0", "0", "0", "0", "0", "0", "0"], "batch_normalization_1_a": ["140322896", "159601648", "162668528", "140819168", "114985832", "146886800", "119947976", "157136608", "123140768", "146350912", "181888688", "149979456", "201928256", "153837344", "179465696", "102998984"], "batch_normalization_1_b": ["68630514364673511249651718802112512", "-31812419721470516634161407623954432", "-556050380170768256767117232261038080", "7007157808148491529081684112703488", "-672384141474719382832715165981474816", "854134180107741887387005736403861504", "398940854676819561054781985200799744", "13205251238041747781841121294942208", "187651407739019369438198886721126400", "-273855510927461539126432389954273280", "-881611457605638930836497900907790336", "8784306152405365604938344975826944", "-330602088117084513945276292802805760", "123777158040483432035131595117559808", "-211899404753956884185631394967322624", "227741491796537238375232873942745088"], "dense_weights": ["-6450714", "-5437050", "16015620", "13898836", "-11983715", "-4635729", "8198978", "17516438", "-24098490", "-6646906", "-15543585", "-25553618", "2232007", "13154895", "10068250", "-3580618", "-33002226", "14570022", "3777334", "20750660", "11955601", "24053436", "-3505895", "-1568108", "4815432", "-6402238", "4145785", "15197620", "-30003996", "-8377520", "6244765", "-11049323", "9404209", "-19480296", "18529212", "-14786645", "27872818", "-14170111", "1815653", "-8586031", "7290604", "-11864132", "-24087288", "6479594", "-33886968", "7152288", "-1420251", "9438869", "5146539", "8064208", "-26738562", "14137740", "-5171054", "25913028", "-6826907", "-8661219", "-10597887", "-442960", "493668", "10269144", "14022005", "-4560034", "-7574864", "-23395372", "11220355", "-23491140", "5464256", "10395418", "3847764", "668316", "10563478", "-12000831", "22564030", "-830985", "-28708298", "-3480244", "-19637798", "12063855", "-9554626", "-11712147", "19116934", "-1024320", "-1677131", "528734", "-8464621", "-22715418", "-75946", "-22868378", "20157710", "-489507", "-20377502", "-24148502", "8028960", "-5552990", "-2050933", "8493167", "25114142", "-17976534", "-3704488", "13764073", "-16358204", "-10234945", "-9631406", "75516", "33683216", "-5617137", "-19928824", "-3634877", "3297440", "16601479", "-15420935", "15355252", "-7791963", "-15805780", "-15393878", "12923110", "-1650440", "14898711", "-6639", "7038700", "8413579", "-5116988", "4477668", "12987949", "-10130998", "13668613", "-23047426", "505284", "6699933", "-24447504", "4428185", "-20106716", "-26204732", "-9798878", "-8793970", "21408066", "9846052", "-21072466", "23282980", "-3921285", "-4064750", "19558584", "13467758", "4954650", "1571416", "8592289", "15131164", "-31705234", "-8199637", "-29015766", "20423642", "3986808", "848178", "-40258808", "17015268", "4917126", "6984040", "-1014021", "-9992890", "-9589"], "dense_bias": ["-16637216508388521218992570053667141456602160536112594944", "73532766103744517195258267624066131095558481839686418432", "-17961235344409945440065411327842703135707794004944879616", "7957561314105988461378280909782126545886786044318187520", "-2924528159201145482312266058830200283781871913926656000", "-5294672772288322713388723190072852188621766351963291648", "-12259486317634583566390970589301746490656202061210714112", "-11254914849996567414888890264199631741011223036639051776", "1086072903126478335702555371959023491021041353413885952", "797450542449951189234140076669876439520933441748074496"]}